[{"name":"Layer 1","number":1,"activation":"tanh","derivative":"tanhP","parameters":{"bias":[23.016088684079783,22.215419036868354,23.92468731723519,22.22483744233955,22.953104700068856,22.80379383898056,24.51746513366009,24.70847526091149,23.851835479529136,22.28106709359639,21.945097150174732,23.306716113504045,22.714592134971546,21.415606607657992,21.686123987277426,22.295616606338,23.214187089142463,23.21135955192164,23.30460897392033,24.281668652838796,22.176461206594333,22.562937607914037,22.93248895363117,22.381892402525054,22.60867657845762,24.372532193961156,21.68014406770724,21.640221275535566,24.75105394754238,21.38533268580794,21.937561856328237,22.563266599052994,22.65344154872681,23.35208508352205,24.238071634425232,22.77687632158358,22.834265966092836,21.415296596997855,22.619956410479148,23.917154844058267,22.879950878530387,23.04490020167433,22.21491021303862,22.50354832498258,23.71218912370768,23.896097176323728,22.641230143238126,22.896355443083117,21.941824604105825,21.698421633277555,23.811944076125748,23.445788155574142,22.316134072733796,22.78851918122792],"weights":[[68.25543620856965,14.308567603375407,4.629224702619904,9.219029496668304,-10.526927518601049,12.636390528097571,61.671252774908254,8.164908157224918,4.624967535660428,-15.141226567930149,73.09820118075484,31.383215026128138,-14.222522782702644,-26.582105332748633,8.357843015564288,26.19993051645173,27.680238391604945,3.319266737303516,45.87221024383225,46.616830264851856,-25.97754903982175,41.56800470583903,-10.915136911579474,39.60047987515052,-12.882810764085686,35.58241214445474,4.856363899517482,0.8189736008676304,-29.43803543410604,7.579788597685834,10.425801651265521,59.247109477348424,14.663476452677171,64.69693466974998,19.128947651924022,7.852613699100555,-18.023158179268833,9.16438388028221,6.899902821516458,5.814622450956945,4.698214642439366,-24.32438027102705,58.510039741193516,-28.020522213548333,-17.554951144077553,10.707586943062251,37.81438094421946,12.740796016593045,-3.7631369606645406,-5.348521467057357,-24.314224745598874,42.04472669617445,17.045206829070995,40.822236896813116],[62.50459751412063,11.90117833402244,3.2762698387070466,10.520329225653489,-10.747674228644547,10.198085085850042,55.89535470029053,5.964887816292892,3.6729493880464203,-14.112796074812712,67.06816134227061,27.5879883861585,-13.809545349875146,-28.215871705546313,7.240646265226243,20.334445357066343,21.164372046232604,2.1266082083785185,42.23198671544438,44.78532619982767,-26.66819191024493,35.8533668684239,-9.815822314627923,35.73187838502666,-12.383798259963761,32.653859472475496,4.759459209252684,-0.943998239332772,-31.150699834458404,6.5088522517207394,9.895597766207466,55.397022996612165,12.89846678810499,59.53958722998861,15.175162145027869,6.5796475695282375,-16.932702665781616,8.495662533812848,6.6051481283184765,4.322334411149106,2.711107071871804,-25.420623373917806,54.6493594346868,-29.6846583962704,-17.132893148866632,10.395074540615452,34.82723556337843,12.566585194764126,-3.3022686930589424,-4.197651293551119,-24.6421883000163,36.22733625194896,13.782803355696702,37.21176380016015],[-28.829624686478763,-6.394507383001416,-3.4262656873489368,-5.233433753028845,2.785827585778821,-4.4620496624149775,-23.69641466858959,-3.049390333227171,-1.4118568986125934,5.684095340303051,-28.868449567501674,-11.109433029371363,5.86976753524772,11.615241437583395,-3.748450004713898,-8.16395441822244,-9.031042143803226,-1.258250552466913,-18.224831865688053,-18.161568866663163,11.248209637225985,-16.330339086620164,4.525618560173528,-15.92476407638297,4.505345002712022,-14.174413078701985,-3.7047916274454753,-1.741699284259548,11.797066728171057,-3.8404526114864312,-5.298052363801474,-23.59157019809679,-6.83539422403551,-27.103473107183383,-8.661581353094915,-3.0066065230528864,6.828851173045337,-4.447037547110114,-3.1324039113367017,-2.994803164029371,-3.062243780230516,8.089464246710838,-23.546251614627696,10.869754690338562,6.145287354865575,-3.3635966423730554,-13.982541230647481,-5.79245904307402,0.6865471388129061,1.1476575752251503,9.759532568677148,-15.040756879555714,-7.541848500191947,-15.858947067019498],[-25.73325162076764,-6.516033418456233,-1.9980207982646723,-6.348743939960525,3.1595222163915104,-4.267658214693454,-22.66820678371007,-3.1081106667590412,-1.532996939621101,4.182339561329836,-26.585269199996514,-12.497452248110676,4.196420517012529,9.651141086709988,-3.43832573605954,-8.721315562005818,-8.346979681981312,-1.303848080088292,-17.77064205770732,-18.90942802409753,8.958374830759393,-13.036708910032926,4.3462864257233935,-14.823621345911533,4.075148337915463,-12.24332865856621,-0.867297151030292,-0.5957692911065234,12.47592408387443,-3.1289361885970655,-5.942547403684292,-24.10892199927197,-4.487939231911169,-24.25592906853681,-5.7841162400908805,-1.3791314490431439,5.386872417575236,-1.850284208278989,-2.062766878569879,-3.1615255278634042,-3.4059010518995305,8.704315228225115,-20.9091342235061,10.190882622857444,5.050197131516941,-5.68196898637152,-13.153964314978223,-5.852469594710097,-0.7158303490211563,0.6908272434699706,6.765349137026502,-13.751779503778597,-7.278678264929252,-15.14950334836928],[-24.97029607029125,-5.477979036893184,-2.9286954840890513,-3.442066218258695,3.9061552839226703,-4.1775702543037765,-24.06351868058809,-3.0197303533023656,-1.892451723537033,5.9600902719225,-31.77052759807666,-11.406228326584683,5.129827239264979,9.221934134012,-3.654257186722608,-10.806500884377563,-10.513198480487867,-2.5594403263944034,-16.457136612732228,-20.886099024021334,9.78741181594787,-15.979834863079,2.6073503643490628,-15.642526480061507,3.9908238939277125,-13.61989156763124,-2.2400873946165536,-2.023379853760473,11.180622589022057,-3.694055701003949,-6.027719865526214,-24.262316915891386,-6.011472641603725,-27.38253612573788,-7.230602915236785,-3.671091289034093,6.604117025637336,-2.73394971784541,-3.0139097469235265,-2.8052376527021097,-2.3537889537415886,8.919869628806433,-23.409117789110187,11.454362004885835,5.907554233616745,-3.4627907797128423,-13.959712303949107,-4.06412452633331,0.36868861910724376,1.4501106251487605,7.899516326086146,-16.424936349380815,-8.634536595360622,-13.230012207830073],[-27.519423463536203,-4.5669971557140805,-2.375343278617198,-4.041891617265558,4.165924260895171,-6.085139826293051,-27.455332363997766,-2.9713701489026323,0.0039009752229112373,2.8874138865837726,-26.03814612090292,-9.828404199759849,4.602818396035622,11.826417025187297,-4.314099619606752,-7.7669674617366296,-9.14900956387972,-1.5219563399495053,-16.529012674979132,-19.375469232848058,11.11617877113045,-12.212969634354494,3.841765580613882,-18.226166021653153,3.7918260768999517,-13.883647368889852,-2.4087445584446936,-0.6559135259836476,12.163229088351576,-2.8568463312600145,-3.9639236077290865,-22.708650738898772,-6.403481645461081,-25.573466601190496,-6.074583324663136,-1.8591957467904898,6.0270894312132715,-2.3182200068784584,-3.60492553028359,-2.213565275988618,-1.9450640513220443,9.023361915894197,-23.898233456172715,10.81002687084452,6.559019675474722,-3.4915566773008417,-12.854198191637554,-4.716201573395319,1.636227460826688,0.9746391735264092,8.629522780721496,-12.205309275183572,-6.260963691212178,-14.554237261871478],[-27.391983521664077,-5.318444619998301,-2.3891542897086047,-4.215496043057156,4.748883285347299,-5.105039701987065,-25.90968874790852,-2.411809986291524,-3.0405548289355195,6.1309445859811245,-28.786629920191274,-11.124731446914591,4.745291202400501,10.025588085758839,-3.5767862250885916,-8.761887419511957,-9.40800528964048,-1.584667808650916,-17.83356336970304,-18.005316557442114,12.017739863409279,-13.856616137341913,2.6362050468948173,-15.975583863748632,4.34307801028549,-14.145292763730552,-2.3503120420634165,0.030288431372716473,12.239500113283855,-3.0913527305328854,-3.7331323703290513,-23.611940843925158,-3.875216438565175,-24.731928050173067,-6.686380187774985,-1.7305982995926033,5.742880553925504,-3.3254458580072814,-3.7827855765724827,-2.9142415456222883,-2.685965544751685,9.47254542825219,-23.325218443216944,11.712392844578712,5.6390699621501925,-3.2203272570086963,-13.541823480577506,-6.09757218469588,-0.10065422653515108,2.971666699684727,9.191646323862573,-15.65690096642579,-6.7868271031492675,-13.511651223551581],[-2.359982757922642,2.468133274583036,2.778002970454242,-2.347056529451959,-2.152177290463254,-0.61150687211696,2.710748148388364,1.9922656467196793,0.050702541759433485,-1.6850972450802435,-6.822565330003844,6.578758411826561,-1.9453318166103963,-3.2669280136748595,1.6249472015104636,6.794057776074746,6.2533073437967195,1.8257135124060397,-0.5934788007536466,-1.3284388616232148,-3.2648951028259754,10.655067561303314,-2.369222807960336,-1.1281208553627453,-2.094714688889174,6.8449958108454085,0.17607537525558553,1.2725469878989244,-3.225167443731853,1.7781455752955218,-2.7049958825226508,-7.083301153834352,-3.4465027625325906,-6.958574427652667,5.335487547966646,1.9019034042743874,-2.4568546434607663,0.6596416320722285,3.0705059054400206,0.8663716869355303,-2.8388125121699255,-3.2772527076003337,-5.241649584435362,-3.6795531314011605,-2.5754577779475967,-2.919941627986449,7.750896750202861,2.9455320928259714,-1.641757975705318,-1.1339044757396226,-3.4208661285360686,9.797224237976767,5.794675674905978,9.256142997128569],[-1.792867748996242,1.1739347331811638,-0.49549841042561904,-3.410737174526469,-2.3409283235807132,-3.185163743621753,1.9764483652336744,0.45481245026397804,-1.4842952012019195,-1.2731139077117464,-5.711679228685546,3.7285529085346223,-1.9377672305263973,-2.1118770956152755,-0.6958099063299147,2.2523719077565545,3.019482692297458,-0.3397360692038698,-2.6947696721200014,-1.6694391352313864,-2.1767082452442574,5.018238012097697,-1.6453784199029837,-1.450630441546311,-1.0473211881923352,4.559346410810763,-0.27391654560855927,0.13521025743282403,-2.1535706058169786,0.5925082128317838,-1.4432521630607604,-4.97335738983378,-1.5840465854408434,-7.071965124894439,-0.6761035626440821,0.2699791375119808,-1.0302599332077138,0.4602153515504897,0.20306742120524993,-0.8589739329686115,-2.663944686095166,-2.0995163573233424,-5.989886122258998,-2.4712509112964582,-2.5880756595447445,-2.2543715964134896,1.8844978754370771,-0.09409566895473771,-0.7114721269426246,-3.086957606036272,-1.9358717132799474,3.2879234000444155,2.413450608482287,4.025960608593829],[1.7586860612256447,-0.4187504006700026,-0.21670831121315465,-3.837666095378081,-1.3566134542476695,0.5163729634600734,2.8005010343018104,0.26039672131738467,-0.15946581592356107,-1.11999092953463,1.1191130469613613,-0.6708057954079203,-2.773441632436062,2.1199736254429404,-1.0114950486717917,1.66586666788857,0.9159577987319338,-2.428288882254216,-4.6141306744735155,-0.053541627153843564,1.720253170944287,1.3721033139749335,-0.5796937561538608,0.867755347618029,-2.573236641534252,1.1874385274209482,-1.646978708817032,-2.309126407136115,3.4224290357769784,-1.5171395151208498,-3.069475981137572,-0.04293624130399722,-2.003597440800016,0.29285679872287634,-0.16042533459483152,-1.9155018936685724,-2.363097621316339,-2.1114960019815414,-1.3504167118175525,-2.0011336644991653,-1.4685769452115318,0.26138531535422377,-0.9112403405480334,3.4526305162010504,-3.3919828592050703,-4.12161902124742,2.2574511944828832,0.7529900146316114,-2.300239444831104,-2.19313992147213,0.38675027918595817,1.14349076823692,-0.7047201240048374,0.7532514971281281],[-4.533847145997312,-0.15956667182328957,-2.0218686962926258,-2.0228925907000797,-2.5862952119296945,-1.3528315075517097,1.8199824537340332,0.10442862864918358,-0.8650646150290269,-0.7614023423209114,0.7336350389508824,0.53902311966944,-2.321765913305708,-0.5057477087035005,-1.8781133516869644,-0.142135532729138,-0.4097307701816126,-0.18460393348714088,-4.373393194323267,-2.2014399686224517,-0.9576687454072277,0.7917113686211033,-1.3486748454552901,1.3187827178553493,-1.9167845595136228,0.6194822055999432,-1.122888597234519,-1.085737552638835,-0.30318512050533075,-1.251587698078328,-1.3435686589610956,1.2777931594738925,-1.3643042879213045,-0.9192513012971671,-1.1112361973785645,-0.8556674998395132,-2.0239889296528544,-2.1894130843370276,-1.883340473659367,0.05609693647479865,-2.0967062745533274,-1.2082170556656477,-1.4546045913482604,-0.30607485787947614,-2.8447891586091703,-0.31270322642104814,2.181939255212699,-0.7617373848551519,-1.3713828149934615,-1.7160763690094862,-1.382553402725067,1.8092921292834014,1.1159952357721363,2.2888113630297577],[4.005838339997532,-1.519178341878875,-1.755459264972313,-3.5165904065326106,-1.6134091757880622,-4.704327618489273,-6.717646392467647,-1.7557577629842571,-0.509724764080972,-0.7001558029736056,-4.278287416892246,1.1833866912451727,-2.093027767387193,-1.6115157922836074,-0.760253937809621,-1.3466981685931103,-1.4150124479392694,-1.9719986560620855,1.6264868589639827,-3.647630720468819,-1.8340532223585069,1.5148960529314528,-1.7287798714614202,0.34875996650112023,-2.785821832496757,-0.05225426453436273,-0.5833616471172615,-1.604514798811466,-2.542128269944645,-1.008497162456838,-1.9283645149747097,-3.5078326375418003,-1.1748775019157818,-2.403225583833043,0.5992273997803532,-0.7975430242090576,-1.9104446580492482,-1.0349386472849598,-0.49575635736203344,-1.673541262731052,-0.8674751542018888,-1.9152827323516055,-4.6766072493228865,-2.0033014011830326,-1.5806343700858938,-0.747489284986131,0.4258509687090767,-1.9866738325559012,-1.3868319535363147,-1.4464825000950678,-1.7527133128704564,2.5567977665319077,-2.5730746695325806,2.0528233057298886],[-1.391335616236777,1.5767078155407606,-1.018584034181087,-0.5849553687423334,-2.348198403545331,-3.487039176821296,-0.8387431468038941,-0.7420455975245764,-0.9524686800348726,-3.466422296806392,2.649932150014467,1.9165625989262918,-2.6327973742671205,-1.0167054201314984,-0.7355564338945786,1.5484695629587624,1.1072920004633031,-0.8569763534977493,0.4199085414741413,-0.5993996515410684,-1.353872949353398,2.4297190689360098,-2.634323108412139,-0.9833369586791374,-2.9593232269064758,3.9028268270477247,-2.2758069877036893,-1.6103729401271945,0.22820469679344713,-1.8397185497425672,-1.7714355894428655,-0.42220490686129925,-3.15677909169053,0.8604907361658602,-1.3445739582859217,-0.8971033739333346,-2.921148354568757,0.239291313994176,-1.6813353385634808,0.21397149945389712,-2.9363081918004963,-1.3467601550454844,1.4458579286093998,-0.5001485294017389,-3.2387077064994925,-2.368694696319408,2.4699601884606768,-1.9255960708092024,-2.817412866094328,-1.76077130300208,-1.6427373420522355,3.225412841784929,-1.4688042228798843,3.4562709647519894],[-4.506181481296824,0.17640271213931333,-1.2817921735693074,-1.7052061267921346,-1.9613937422064387,-3.2465076768958543,1.7857395673492513,-0.1619557534551621,-1.1963310768621025,-0.720105647219577,-4.196272978142578,1.542986882532302,-1.5902348991483335,-1.4730014264907458,-1.471778477098086,-0.004520129225706146,0.2083751911058442,-2.0672361066028,1.1728079655889527,-1.8129590423746502,-1.900014076193075,1.1106450494213467,-0.6151002305802565,2.291185045500916,-1.208222510962425,1.3924762360097105,-1.5654579281171417,-2.375535301962866,-1.588687340097988,-1.536931593529424,-0.7889597550184149,-1.8368385155518598,-3.2723174472122145,-1.736643408765153,-1.0614363128019002,-2.267407054220687,-2.1694267109518144,-1.0493862076501157,-2.0956715136103257,-2.589144727258907,-2.3162517773887044,-2.0573070742808897,-5.249167424722139,-1.013017683081647,-2.126099326258225,-0.7608407021893975,1.2061821639588148,-0.803089001418923,-1.9934858608429458,-1.9208333189518165,-1.9253441185635864,3.342101807456977,-0.007467494035082262,1.898777004341223],[-1.3406841599405914,2.6800295469810798,-0.4396725596852143,-1.4048852424578502,-2.248400861027319,-0.32392505309424846,-2.9111681452682245,-0.849012348865238,-1.3335807264812536,-1.7130640806121797,-9.127115308800327,2.0181404774025644,-0.9028248514633664,-8.874784110705525,0.2230685722988469,1.8864262690312457,1.3219847630257198,-0.9424730696449698,-0.4151184318874817,-5.415203455727172,-7.5767915811833655,3.0398170175704666,-1.5988622551125296,-0.5090981135747953,-2.005257710202319,3.5266509277004054,-0.46593447971706636,-0.4107161653700184,-10.355885124947552,0.5406167019787045,-2.7105913159188635,-7.802664170337796,-1.5300229510228833,-8.175162626515588,1.8350502818687133,-0.5629653041532076,-0.5346347202353324,0.6072662589115739,0.08013798501020797,-1.7603357444285084,-1.2468584337682258,-6.127917103057706,-4.096341069817138,-10.59215411905167,-0.6290954936148603,-2.279180143770732,5.0040899581288,0.9665520650950535,-1.928773798919279,-1.0818646643493004,-6.2329694055765685,5.209745550575324,2.48999973749626,4.13861151679966],[-0.27002643270523297,-1.1809295030975124,-1.213972603037029,-0.6561858696141339,-1.7768628069318517,-1.8699330338188516,-1.398674024788331,-0.61433908751081,0.1348076920306651,-3.3077875746022123,1.7209705661751387,2.646221579006185,-3.364180860769835,-0.9419298618680185,0.6543718929194116,0.7190896923722743,0.8407650170777256,-0.9918455054201348,-3.089121067580856,-0.8890411658397412,-0.6728888656233736,1.7837620233044307,-1.221094037015716,-5.084116970283784,-2.2062695520410704,1.554661294788028,-0.6077853249387323,-2.1743090720180587,0.1272078865381516,0.263772670495154,-1.4396787477565365,0.0655168352237723,-2.391128003364597,1.7892482974310984,-0.684942666505853,-1.0474585267761363,-2.692700256945308,-1.5783892764318717,-1.705961050256762,0.6734734883829337,-3.307168086088776,-1.215291419459789,0.7310572605789005,-0.06477240215201788,-0.9151315779407047,-1.5561734376141838,0.6963656669293563,0.17540316713086884,-1.6500960541466436,-0.5666724708909459,-1.287323600819193,4.44789342562828,0.702325270205465,2.6188883992899306],[1.8694236479350286,0.2896380427236233,1.3755073528950785,-1.293518524448529,-3.1800261530767258,0.06056863510665071,-0.5734689126659831,0.8033884663804663,0.6224352000410921,-3.587137837571824,-0.801796567661827,5.845488631795543,-3.4164786337943776,-3.3794014519629134,0.008677086101648713,3.724324956293179,3.3441602814487648,0.2125767843501374,-4.685337793120779,-1.4687670306091967,-3.3102345184733215,5.5731952730907315,-2.0042236003357954,-5.513476102506955,-3.0169918341342616,6.982740470049982,-0.36871963645987843,1.1336146163753293,-2.7019826588124944,1.4047892332626866,-0.8680377292263413,-0.2640157431555365,-2.125316386756037,0.11617069957624548,1.8128026246050846,0.15866178963609953,-3.598698322925343,1.967860159730938,1.6704151833597252,1.213682999621693,-2.2917989177432383,-3.3464096268709005,0.016879323850754316,-2.626267350236356,-2.524157238328899,-1.4565355482116902,7.302598392115282,-0.1479165829547816,-0.9030691581064232,-1.2650398617221765,-3.6884565110555476,6.074589172655711,0.34728511945401624,5.6841688406666835],[3.0402092319434963,-1.429489632552147,-1.0405496655735778,-1.0929395282338012,-2.3137675795276578,-2.801027302415164,-3.1295956163836633,-0.5711674418333519,-2.5476329065975727,-3.032932313904686,-2.242440556202901,1.665557069404543,-3.2477722521556007,-3.6064411758771286,0.6493148161620829,0.6538683261463665,2.2688617880816717,-1.7843103027633067,-1.4689092594004127,-1.1995374857649932,-3.3877928937153925,4.7347780765191905,-2.603772838339309,0.5836479930525496,-2.4794752421732063,2.2558680706005494,-0.90382462414902,-1.4207081769584757,-2.726501702630587,-1.6879203782453756,-2.1371171465639516,-1.9953320260642033,-0.14749774762521448,-2.6089730305159584,0.40304029736400804,0.2685740950062738,-3.1595067640935364,-1.7695968898938284,-1.4759148259302721,-1.587303605409763,-2.322388666525577,-3.3802280757707854,-2.586231553285615,-3.236682089270131,-2.339656750499255,-2.3841850450912165,2.6591432490401203,0.37490695246321215,-2.982803529534196,-2.3041506228394315,-3.1552210974216783,2.198487214328123,0.578010498964826,4.571484324681536]]},"gradients":{"bias":-6.148517076003758,"weights":[[-0.007108360541685464,-0.47362377895532864,-0.3537335861354425,-0.0049118545687371245,-0.002338346356921624,0.005381622195432719,-0.008801497909430599,-0.3947957439766497,-0.3390574807833634,0.0013622788372016966,-0.3752824352021299,-0.7255068868239662,-0.01344200615818401,-0.512882349917811,-0.3820662131948371,-0.642372865250727,-0.650393055464207,-0.3064452348236553,-0.014941642343055301,-0.010769945030435196,-0.4382579902024275,-0.8589148059447814,0.0020322671809435235,0.0023291681211487364,-0.014106227547913502,-0.7935581637265545,-0.2941696279086857,-0.2699418784645816,-0.6564522792894113,-0.36935953695266066,-0.007133240976617548,-0.22698151435235056,0.016665906653714955,-0.4157046252203058,-0.49705983523311015,-0.3630472221943053,0.026318577392829404,-0.3783922908757062,-0.36612329959028134,-0.3301021179679381,0.006071902905205337,-0.3414036178680506,-0.2526900417201837,-0.6306790426350183,0.013435213212922702,0.020616235812053015,-0.8226525272378153,-0.44249374924131585,-0.07015101608950887,-0.04387697818280272,-0.3217320329636436,-0.8780106287839731,-0.5155971574463023,-0.8586736286452085],[0,0,0,0,0,0,0,0,0,0,0,0,0,0,0,0,0,0,0,0,0,0,0,0,0,0,0,0,0,0,0,0,0,0,0,0,0,0,0,0,0,0,0,0,0,0,0,0,0,0,0,0,0,0],[-0.01619728233968204,1.0792106035617097,0.8060259090776887,0.011192270678272068,0.02062433899854592,-0.012262694559982877,-0.020055306116671195,0.8995911355642066,0.7725845802873827,0.003104121523118149,-0.8551276380040007,1.6531575482643142,-0.030629280504140932,-1.1686661333428434,0.8705853186932733,1.4637263550153996,1.482001354509853,0.6982735274865504,0.011692682099135765,-0.0245406573594327,-0.99862526152158,1.957144061002026,-0.01775499613653142,0.04081166957397014,-0.034293741529124566,1.8082208345316921,0.6703020325227378,0.6150960963719272,-1.4958080485401606,0.8416315787293942,0.016253975500779574,-0.5172055711431152,-0.03797533818578663,-0.9472346183229012,1.1326125685062038,0.8272481855744687,0.05997014730900993,0.8622138303946638,0.8342574099644189,0.7521786738726615,-0.013835584888808573,-0.7779305450208014,-0.575785643703068,-1.4370805278340057,0.03061380193469157,-0.04697665379675711,1.8745159552591346,1.0082769645652565,0.1598478027885648,0.09997914423040971,-0.7331063956410411,2.000656265007592,1.1748521594706682,1.9565945085711647],[0,0,0,0,0,0,0,0,0,0,0,0,0,0,0,0,0,0,0,0,0,0,0,0,0,0,0,0,0,0,0,0,0,0,0,0,0,0,0,0,0,0,0,0,0,0,0,0,0,0,0,0,0,0],[-0.06887742616819245,4.589242016522836,3.4275496887608456,0.04759408283008559,0.08770306998723372,-0.05214596013487137,-0.08528331095070825,3.825427051400052,3.2853435700789757,0.013199986055800547,-3.6363501923222983,7.029897644989777,-0.13024814671164373,-4.969643278822337,3.7020825317406514,6.224359237167543,6.302071960944613,2.969342777758991,-0.1447790754675634,-0.10435684702810555,-4.246560396840914,8.322571820084079,-0.07550145819922105,-0.022568791264446858,-0.1458309240196723,7.689289747152038,2.850396615138617,2.615638542053867,-6.360783634221403,3.578959464251153,0.06911850852607478,-2.1993682516055366,-0.16148656899654945,-4.0280264997079955,4.816328871006409,3.5177954319585636,0.25501743483549355,3.666483561795381,3.5476015022171707,3.1985693641968167,-0.05883452894674788,-3.308076784423318,-2.448474523760244,-6.111050352634452,0.13018232554472955,-0.19976382060019035,7.971203539074339,4.287603360089104,0.6797378105673795,0.42515194713981225,-3.117466287260304,8.507603392415584,4.995948775569155,8.320234899841024],[-0.0012732705618934636,0.08483689194155133,0.06336180605049484,0.0008798259162571936,0.0016212820863796423,-0.0009639720828021214,-0.001576550334345819,0.07071698119677901,0.060732978657952554,0.00024401541400826293,-0.06722169962207117,0.12995493912087003,-0.0024077718953107773,-0.09186900327234236,0.06843682999789855,0.11506372732311798,0.11650032751239155,0.05489137671694022,-0.002676391163642669,-0.001929144403979885,-0.0785020672723267,0.15385136012313413,-0.0013957226547686033,-0.00041719670587754505,-0.0026958356735710754,0.1421444850887763,0.052692533703484895,0.04835278757395134,-0.11758567360300035,0.06616077257174581,0.0012777272189778014,-0.04065760010680603,-0.0029852464861620724,-0.07446224183930703,0.08903482764984648,0.06503009208472117,0.004714261414947699,0.0677787461671474,0.06558108816482063,0.05912886758661785,-0.001087617204914625,-0.06115322567082994,-0.04526258755716584,-0.11296909523386613,0.0024065551228666876,-0.0036928411273743213,0.14735595352213351,0.0792607889578494,0.012565657460659335,0.007859374090183356,-0.057629593207664205,0.15727186038246824,0.09235528762538885,0.15380815973199718],[0.06633092372442342,-4.419570809855132,-3.300828001494895,-0.04583445772534078,-0.08446055506655172,0.05021804525326891,0.08213025817521148,-3.6839952372805373,-3.1638794577383424,-0.012711962640600165,3.5019088351708754,-6.769991714580902,0.1254326760654604,4.785908063117869,-3.565210950751381,-5.9942352779818675,-6.069074845022112,-2.859561691841424,0.13942637444496003,0.10049861682461075,4.089558647069345,-8.014873773607501,0.07271005528960958,0.021734388974682328,0.14043933456790664,-7.405005095107167,-2.745013148450463,-2.518934435789911,6.125615859088843,-3.446639928971034,-0.06656309290352351,2.1180542865078116,0.15551616671146096,3.879104278078731,-4.638261920448999,-3.3877372233041454,-0.24558905521767052,-3.5309281284760297,-3.4164413181409743,-3.080313425268405,0.05665932757707066,3.1857721908233936,2.3579507236542954,5.88511559399555,-0.12536928840647074,0.19237825052832344,-7.676496108479218,-4.129084189995298,-0.6546068773715714,-0.4094334377152446,3.00220885154413,-8.193064449329922,-4.81124100593117,-8.012623252834361],[0.05575049406959126,-4.415959758016894,-3.298131028975318,-0.045797008251184906,-0.07770101841692446,0.05017701412775325,0.06902968049041633,-3.680985194372303,-3.1612943803126448,-0.010684280543898082,2.9433202009752373,-6.764460229267604,0.10542494014063569,4.022509021568445,-3.5622979616600627,-5.989337631750899,-6.06411605042001,-2.8572252601044656,0.11718650706467179,0.08446810667917148,3.4372341330252887,-8.008325145716102,0.06689093317823738,0.06783560988056445,0.11898185893772706,-7.3989547661473445,-2.742770309676708,-2.5168763167516377,5.1485203499281615,-3.4438238194466653,-0.0665087069033146,1.7802039578041846,0.15538910076686133,3.260349289704305,-4.63447218498493,-3.384969240788649,-0.20641520421685144,-3.528043150486631,-3.4136498826752053,-3.0777966262543774,0.05661303354133662,2.6776104365658324,1.9818345720862314,4.946382224149553,-0.10537166343185247,0.19222106607193726,-7.670223955237112,-4.12571048297803,-0.6540720246744306,-0.4090989062796127,2.523327241288772,-8.186370229073379,-4.807309936280712,-8.006076463752096],[-0.0741947198076999,4.943528591126086,3.692154352045436,0.05126831585517899,0.09447369139619327,-0.05617159520250702,-0.09186712849590789,4.120747594870108,3.5389700111442908,0.014219016611975834,-3.917074122125387,7.572601287004709,-0.1403032210748505,-5.353296589742746,3.987880956479797,6.704875824720933,6.788587921512314,3.198574157966787,-0.15595592831972402,-0.11241312946796608,-4.574392167627,8.96506908900371,-0.08133012291261957,0.021807880772509836,-0.15708897891329998,8.282898041472167,3.070445426990843,2.8175641794746267,-6.851832098749361,3.8552528662265284,0.07445441357079118,-2.3691580864730506,-0.17395322975844316,-4.338987592161762,5.18814640682782,3.7893670094121887,0.27470461915192035,3.949533768620565,3.821474089401006,3.445496891573287,-0.06337651728684687,-3.5634582152256704,-2.637495204932252,-6.5828195661272,0.14023231855557383,-0.21518546092233737,8.586575399428682,4.618603621621247,0.7322131386645226,0.45797340795965197,-3.3581327085076635,9.164384981429635,5.38163285416364,8.962551759999238],[-0.07072267003456213,4.46629504894022,3.3357247558079357,0.04631902517617078,0.08537583301568304,-0.05074895652355953,-0.08756807266714076,3.722942882122246,3.1973283754228654,0.01355361705888352,-3.7337689441782382,6.841564888783877,-0.13373752788042886,-5.102781293531241,3.6029027936969054,6.057607060969517,6.133237840997146,2.8897933251643297,-0.1486577439348321,-0.10715259365519449,-4.360326836171914,8.099607992052373,-0.07347875482026672,-0.021964167573218833,-0.14973777177872213,7.483291707852133,2.77403376066781,2.545564916413745,-6.531190654914809,3.483078224681186,0.06726680600166689,-2.2582898896797174,-0.15716030250374638,-4.135938360032317,4.687298188501783,3.423552792459899,0.2618494171499668,3.568257529262932,3.4525603504716784,3.112878872713734,-0.05725833686598353,-3.396701007707027,-2.5140697825885634,-6.274766954830636,0.13366994334761556,-0.19441209674533905,7.75765295717333,4.17273736927361,0.6615274607406282,0.4137620177191169,-3.2009840065655273,8.279682521228757,4.862106029873275,8.09733367850043],[-0.009565464065064649,0.041348989298270175,0.030882161997471486,0.00042882184345842465,0.0075030811757856395,-0.00046983417736563924,-0.011843857873792905,0.03446702998886496,0.02960088738646735,0.0018331694330126357,-0.5050040198614865,0.06333925328933904,-0.018088422233855875,-0.6901672557230033,0.03335569805103482,0.056081366500090046,0.056781556765113206,0.026753725843702877,-0.020106428489016358,-0.014492726074769799,-0.5897479498858946,0.07498622471505467,-0.0064399804791386035,-0.0002033336335551068,-0.02025250565953255,0.06928036445268826,0.025682023024903355,0.02356685694372547,-0.8833641247020633,0.03224636139333395,0.0006227565378045747,-0.3054408265082963,-0.0014549911269033438,-0.5593987011361082,0.04339503783570034,0.03169527454552737,0.03541595911158452,0.03303495196224786,0.03196382671072366,0.028819053328148353,-0.0005300980639132064,-0.4594145188963049,-0.3400358633329804,-0.8486820109274085,0.018079281212742486,-0.0017998684860026821,0.0718204027255133,0.03863123034550349,0.006124425635777555,0.003830611514740373,-0.4329431775226507,0.07665335590504577,0.04501340999493378,0.07496516910504583],[-0.01087998870017459,0.7249240289584595,0.5414212457930987,0.007518037653178671,0.013853717589586367,-0.008237059492347229,-0.013471488571471572,0.6042705920941502,0.5189581392220676,0.0020850909669428634,-0.5744037082009124,1.1104539062493823,-0.020574206140934182,-0.7850128224224349,0.5847868939541278,0.983209767462009,0.9954853939421513,0.4690421472787543,0.022869534951296393,-0.016484374919572185,-0.6707934907354938,1.3146467920823954,-0.01192633142313289,-0.003565002462986557,-0.023035686635496874,1.2146125402115613,0.45025322067051193,0.4131704589511672,-1.0047595840122037,0.5653381767540185,0.010918070456063175,-0.3474157362756018,-0.02550867742389292,-0.6362735258691343,0.7607950326847926,0.5556766081208427,0.040282962992583216,0.5791636235694794,0.560384822780583,0.5052511464961911,-0.009293596548709572,-0.5225491142184491,-0.38676496253106013,-0.9653113143412574,0.02056380892384727,-0.031555013474610094,1.2591440949047947,0.6772767030331132,0.10737247469142161,0.06715768341057005,-0.49243997439368087,1.3438746759935394,0.7891680808761838,1.3142776484129506],[-0.02321624396097767,0.9508883861922754,0.7101863838092086,0.009861467416985674,0.024884905253649545,-0.010804613855746055,-0.028746111214967313,0.792626351433555,0.6807213553332159,0.004449267540930406,-1.225690300714065,1.4565908711447761,-0.04390223209181349,-1.675098173361378,0.767069435755038,1.2896837623298127,1.3057857953524667,0.6152461674126859,-0.0030610453672771654,-0.03517515323070772,-1.4313714616359077,1.724432239240505,-0.021403573706058582,0.04144273823017956,-0.049154657736891455,1.5932165469395088,0.5906005888594867,0.5419588470516974,-2.144004398109667,0.7415584048426092,0.014321316416032903,-0.7413324325536865,-0.03345992702760148,-1.3577110978297435,0.9979406557844941,0.7288852514655781,0.08595772680277144,0.759693349037561,0.7350610525989465,0.6627417882723972,-0.012190481583044553,-1.1150404703171826,-0.8252977069300997,-2.059827780122511,0.04388004600917528,-0.04139095221089295,1.6516289273895293,0.8883890248169548,0.14084129522853428,0.08809124632058235,-1.0507921374475178,1.7627706778269783,1.0351577998276174,1.7239480306695452],[0.11340022764502128,-8.50300447776078,-6.350606537278053,-0.08818290644993304,-0.1557844568139673,0.09661668112676663,0.14041097953508574,-7.087798645242793,-6.0871252783765915,-0.021732540063033698,5.986909827312834,-13.025081470608164,0.2144413679363556,8.18205195061795,-6.8592643907417,-11.532569926422823,-11.676557024047298,-5.501635094507702,0.28410425033436704,0.1718137692951251,6.991563745924001,-15.42016420094555,0.1341303236821822,0.04181574689953391,0.2410409192786793,-14.246811328632505,-5.281250170432633,-4.846287503516549,10.472434181266419,-6.6311404455652205,-0.1280636291085513,3.621053722278564,0.29920431616641296,6.631768163224502,-8.92375381579143,-6.517814968593353,-0.41986230863471397,-6.7933061780873025,-6.573040024923115,-5.926348954418593,0.10900934430566091,5.446438423885997,4.03118385549762,10.061271735774568,-0.21433299955316865,0.3701248822665065,-14.769144695760984,-7.944124637236465,-1.2594266386798596,-0.7877267961120937,5.132616102520009,-15.762992991058908,-9.256555800801845,-15.41583432616028],[-0.009574188798156566,0.04076766805480059,0.030447992816603264,0.0004227930806882593,0.0008014444306390922,-0.00046322882635596585,-0.011854660747341372,0.0339824615127835,0.0291847315153011,0.0018348414809035152,-0.505464637898799,0.06244877315651287,-0.018104920822421017,-0.6907967625670004,0.03288675367786276,0.05529292426093235,0.05598327062209041,0.026377597927668806,-0.02012476771655461,-0.01450594500130764,-0.5902858635113333,0.07393200099316566,-0.0006707029994141578,-0.00020047483723219933,-0.019327009350022434,0.0683063588410624,0.025320962070017217,0.023235532894077426,-0.8841698478910862,0.03179301307162996,0.0006140012668516825,-0.3057194214273231,-0.0014345355543372296,-0.5599089329791411,0.042784951403525895,0.031249673897879582,0.03544826227934941,0.03257051692578106,0.03151445051544455,0.028413889182648866,-0.0005226454690395732,-0.45983355440034934,-0.340346012650262,-0.8494561002946224,0.018095771463712246,-0.0017745643176513004,0.07081068697363246,0.03808811779928867,0.006038322957416131,0.003776757336275971,-0.43333806831332833,0.07557569415497944,0.04438057103284265,0.07391124140184147],[0.05794931196085344,-4.808358985476608,-3.591200743997362,-0.0498664997417055,-0.08517764396313232,0.0546357100079004,0.0717522338780325,-4.008075074197429,-3.442204882351389,-0.011105672095798278,3.059405721393034,-7.365545636200431,0.10958293458418475,4.181158105347824,-3.878841373451583,-6.521546163639757,-6.6029693425250695,-3.111116383706296,0.12180838159060305,0.08779955669242816,3.572799781981134,-8.719939556313994,0.07334662101574736,0.0236463559509488,0.12363731229411032,-8.056420932811285,-2.986491043015072,-2.7405242611225145,5.351579692233153,-3.7498396982836355,-0.07241862606886541,1.8504157896065985,0.16919687222263166,3.388938542043793,-5.046288280403404,-3.685755341171242,-0.2145562880159296,-3.84154270269206,-3.7169845256931575,-3.3512875737721366,0.061643629797437385,2.7832162761553807,2.0599987818811374,5.141469172041082,-0.10952755662441864,0.209301701304443,-8.351794920419472,-4.492318354189711,-0.7121924268631763,-0.44545116118576344,2.622848100722399,-8.913805606571064,-5.2344842785584795,-8.717491057976238],[-0.08770192381903141,5.4934061636300235,4.102839318257014,0.05697098279624127,0.11167269729175194,-0.062419662720326806,-0.10859160767374629,4.579105757991899,3.9326160077276686,0.016807599178447596,-4.630180384029,8.414915341931579,-0.16584552698848876,-6.327868221770343,4.431460124550165,7.450671216509706,7.5436947603220466,3.5543573118487712,-0.1386087513449685,-0.13287802342822955,-5.407163669374253,9.962269840879712,-0.09613633237462249,0.019103725564269206,-0.18568714454574825,9.204219681346581,3.411976591780757,3.13096690848173,-8.099213236505102,4.284079573383609,0.0827361118439643,-2.8004650809873173,-0.1933023602318655,-5.128903515584153,5.765233258738118,4.210865114268388,0.3247147997059687,4.388847510046039,4.246543522485412,3.8287457050238847,-0.07042600124087955,-4.212188437856867,-3.117653171756076,-7.781226771921877,0.16576171661276,-0.2391209265940677,9.541675617769755,5.132339205627748,0.813658522426857,0.5089146134565223,-3.9694832696864237,10.183755998343727,5.980241551454667,9.9594725048445],[-0.02273365023688234,0.8133693955228507,0.6074780995281319,0.00843528631582216,0.022234487073515982,-0.009242033416663221,-0.02814856869741765,0.6779954679251206,0.5822743503304459,0.004356781064837062,-1.2002119999259038,1.2459363828506849,-0.04298964081663145,-1.640278076403984,0.6561346340368179,1.1031676455555361,1.1169409769543623,0.5262682882163401,-0.0020466422879525104,-0.034443970864526385,-1.401617687278791,1.4750421063272423,-0.01914113378934798,0.042119012859008584,-0.04718891604387104,1.3628030361274792,0.505186992428936,0.46357989667944466,-2.099437194702448,0.6343130489867597,0.012250144859845574,-0.7259224299701477,-0.028620899167418973,-1.3294884940335168,0.8536168910564248,0.6234727072060364,0.08417093219627755,0.6498252887110816,0.6287553541577289,0.5668950168520115,-0.010427474749206196,-1.0918622364051056,-0.8081423266479071,-2.017010347592289,0.04296791591385771,-0.03540492687548888,1.41276772521989,0.7599087911863389,0.120472603123711,0.07535135018058625,-1.0289494271575474,1.5078359789532794,0.8854516325392385,1.4746279247698837]]},"inputs":[[0,0,0,0,0,0,1,0,0,0,1,1,0,1,0,1,0,0],[0,0,0,1,0,0,0,1,1,1,0,1,1,0,0,1,1,0],[0,0,0,0,0,1,0,1,1,0,1,0,0,0,1,1,1,1],[0,0,0,0,0,1,0,0,0,1,1,0,0,0,0,1,0,1],[0,0,0,0,1,0,0,0,1,0,1,0,0,1,1,0,0,0],[0,0,0,0,1,0,0,0,1,0,0,1,0,1,0,0,1,1],[0,0,1,0,0,0,0,1,0,0,1,0,0,1,0,1,1,1],[0,0,0,1,0,0,0,1,0,1,0,0,1,1,1,1,0,0],[0,0,0,1,0,0,0,1,1,0,0,1,1,0,0,0,1,1],[0,0,0,1,0,0,0,0,0,1,0,0,1,0,1,0,0,1],[0,1,0,0,0,0,0,1,1,1,0,0,1,1,1,0,0,1],[0,1,0,0,0,0,0,0,1,1,0,1,0,1,1,0,0,0],[0,0,0,0,0,1,0,0,0,1,0,1,1,0,0,0,0,1],[0,1,0,0,0,0,0,1,0,1,0,0,0,0,0,1,0,0],[0,0,0,1,0,0,0,0,1,1,0,1,0,0,0,1,0,0],[0,0,0,0,0,1,0,0,1,1,0,1,1,1,0,1,1,1]]},{"name":"Layer 2","number":2,"activation":"linear","derivative":"linearP","parameters":{"bias":[1.114742934539184],"weights":[[0.03460456500974319],[2.2518213161324336],[1.6817125321018769],[0.02297524467679826],[0.04250305072883029],[-0.025972891809093405],[0.04265586981806915],[1.876973681708089],[1.6119238664922713],[0.005675509637510956],[1.7853672344098825],[3.4495904494306115],[-0.06472268323086526],[-2.4396903130216407],[1.8164414801609499],[3.0542667383252944],[3.092404811029623],[1.4568442269380455],[0.07121009345860484],[0.052016343499768296],[-2.084832238514154],[4.083979507960836],[-0.0375902146169109],[-0.007293742532322461],[-0.07235685228691821],[3.773191820102743],[1.3984705504352117],[1.2832613539988862],[-3.1224023508641507],[1.7560179578434885],[0.03353850989534123],[1.0801581120649262],[-0.07963257438906093],[1.9775851719832707],[2.3632658074017936],[1.726001273353619],[0.12434914497670178],[1.7989710321057943],[1.740628814627478],[1.569338806904247],[-0.02925535459301297],[-1.624264721348267],[1.202408789390224],[-2.9998439641940897],[0.06308542595121085],[-0.09841740824418678],[3.911543021426331],[2.1037899970590423],[0.3332042815226794],[0.20826445575170588],[-1.5307212622376976],[4.174785069974318],[2.451415554913023],[4.0828326477067876]]},"gradients":{"bias":-0.07798100357740623,"weights":[[-0.8024775365892225],[0.38189046205833677],[0.38189046205833677],[0.38189046205833677],[0.5378555346160669],[0.38189046205833677],[-0.8024775365892225],[0.38189046205833677],[0.38189046205833677],[0.8024775365892225],[-0.8024775365892225],[0.38189046205833677],[0.8024775365892225],[0.8024775365892225],[0.38189046205833677],[0.38189046205833677],[0.38189046205833677],[0.38189046205833677],[-0.15873098047397605],[-0.8024775365892225],[0.8024775365892225],[0.38189046205833677],[0.5373362447032406],[-3.782052527459836],[0.7892876400234714],[0.38189046205833677],[0.38189046205833677],[0.38189046205833677],[0.8024775365892225],[0.38189046205833677],[0.38189046205833677],[-0.8024775365892225],[0.38189046205833677],[-0.8024775365892225],[0.38189046205833677],[0.38189046205833677],[0.8024775365892225],[0.38189046205833677],[0.38189046205833677],[0.38189046205833677],[0.38189046205833677],[0.8024775365892225],[-0.8024775365892225],[0.8024775365892225],[0.8024775365892225],[0.38189046205833677],[0.38189046205833677],[0.38189046205833677],[0.38189046205833677],[0.38189046205833677],[0.8024775365892225],[0.38189046205833677],[0.38189046205833677],[0.38189046205833677]]},"inputs":[[-1,1,1,1,1,1,-1,1,1,1,-1,1,1,1,1,1,1,1,1,-1,1,1,1,1,1,1,1,1,1,1,1,-1,1,-1,1,1,1,1,1,1,1,1,-1,1,1,1,1,1,1,1,1,1,1,1],[-1,1,1,1,1,1,-1,1,1,1,-1,1,1,1,1,1,1,1,-1,-1,1,1,1,-1,1,1,1,1,1,1,1,-1,1,-1,1,1,1,1,1,1,1,1,-1,1,1,1,1,1,1,1,1,1,1,1],[-1,1,1,1,1,1,-1,1,1,1,-1,1,1,1,1,1,1,1,-1,-1,1,1,1,-1,1,1,1,1,1,1,1,-1,1,-1,1,1,1,1,1,1,1,1,-1,1,1,1,1,1,1,1,1,1,1,1],[-1,1,1,1,1,1,-1,1,1,1,-1,1,1,1,1,1,1,1,-1,-1,1,1,1,1,1,1,1,1,1,1,1,-1,1,-1,1,1,1,1,1,1,1,1,-1,1,1,1,1,1,1,1,1,1,1,1],[-1,1,1,1,1,1,1,1,1,1,-1,1,1,1,1,1,1,1,0.9999115246586918,-1,1,1,1,1,1,1,1,1,1,1,1,-1,1,-1,1,1,1,1,1,1,1,1,-1,1,1,1,1,1,1,1,1,1,1,1],[1,1,1,1,1,1,-1,1,1,1,-1,1,1,1,1,1,1,1,1,-1,1,1,1,1,1,1,1,1,1,1,1,-1,1,-1,1,1,1,1,1,1,1,1,-1,1,1,1,1,1,1,1,1,1,1,1],[-1,1,1,1,1,1,1,1,1,1,-1,1,1,1,1,1,1,1,-1,-1,1,1,1,-1,1,1,1,1,1,1,1,-1,1,-1,1,1,1,1,1,1,1,1,-1,1,1,1,1,1,1,1,1,1,1,1],[-1,1,1,1,1,1,1,1,1,1,-1,1,1,1,1,1,1,1,-1,-1,1,1,1,1,1,1,1,1,1,1,1,-1,1,-1,1,1,1,1,1,1,1,1,-1,1,1,1,1,1,1,1,1,1,1,1],[1,1,1,1,1,1,-1,1,1,1,-1,1,1,1,1,1,1,1,-1,-1,1,1,1,-0.9999794180439153,1,1,1,1,1,1,1,-1,1,-1,1,1,1,1,1,1,1,1,-1,1,1,1,1,1,1,1,1,1,1,1],[-1,1,1,1,1,1,-1,1,1,1,-1,1,1,1,1,1,1,1,-1,-1,1,1,1,1,1,1,1,1,1,1,1,-1,1,-1,1,1,1,1,1,1,1,1,-1,1,1,1,1,1,1,1,1,1,1,1],[1,1,1,1,-1,1,1,1,1,-1,1,1,-1,-1,1,1,1,1,1,1,-1,1,1,1,-1,1,1,1,-1,1,1,1,1,1,1,1,-1,1,1,1,1,-1,1,-1,-1,1,1,1,1,1,-1,1,1,1],[1,1,1,1,1,1,1,1,1,1,1,1,-0.9999999999944543,-1,1,1,1,1,1,1,-1,1,1,1,1,1,1,1,-1,1,1,1,1,1,1,1,-1,1,1,1,1,-1,1,-1,-1,1,1,1,1,1,-1,1,1,1],[1,1,1,1,1,1,-1,1,1,1,-1,1,1,1,1,1,1,1,1,-1,1,1,1,1,1,1,1,1,1,1,1,-1,1,-1,1,1,1,1,1,1,1,1,-1,1,1,1,1,1,1,1,1,1,1,1],[1,1,1,1,1,1,1,1,1,1,1,1,1,-1,1,1,1,1,1,1,-1,1,1,1,1,1,1,1,-1,1,1,1,1,1,1,1,-1,1,1,1,1,-1,1,-1,-1,1,1,1,1,1,-1,1,1,1],[1,1,1,1,1,1,-1,1,1,1,-1,1,1,1,1,1,1,1,-1,-1,1,1,1,1,1,1,1,1,1,1,1,-1,1,-1,1,1,1,1,1,1,1,1,-1,1,1,1,1,1,1,1,1,1,1,1],[-1,1,1,1,1,-1,-1,1,1,1,-1,1,1,1,1,1,1,1,-1,-1,1,1,1,-1,1,1,1,1,1,1,1,-1,1,-1,1,1,1,1,1,1,1,1,-1,1,1,1,1,1,1,1,1,1,1,1]]}]
