[{"name":"Layer 1","number":1,"activation":"tanh","derivative":"tanhP","parameters":{"bias":[-12.532747764924219,-12.642333064064593,-12.327274824422341,-12.723471683076495,-14.12575805704004,-12.544170879061776,-12.925551960122986,-12.32251640614915,-12.936212443331362,-12.404947037698866,-10.836008717381732,-12.083790018611259,-13.485337026863517,-11.571704633774589,-13.593693716614188,-12.828602628470788,-13.117195731699878,-12.97934082901473,-11.86001682858411,-12.14078319675171,-10.920642212894224,-12.29300186180769,-14.135354860930386,-11.677473718699696,-13.953708436099783,-12.25526293562841,-13.202819827158288,-13.011482027511063,-11.169857073093004,-13.715919044982511,-12.929086726473257,-11.357710643942232,-13.216787090797174,-13.418879593218554,-12.997803078931609,-12.114589826389354,-11.318222717705298,-12.112689433733001,-10.992623306172062,-13.728147258322574,-10.802472134759919,-12.288407200625793,-12.651891519728922,-13.313126653606934,-12.849232774541695,-12.093345583890125,-12.72715145199862,-11.106247632765507,-11.846904030781923,-11.153751313887254,-12.353451508721912,-12.407467158265602,-13.026688178734032,-12.060178045639402],"weights":[[6.78182338583743,-11.574908893108912,6.189817121802735,0.04097197157186012,0.9267965798892646,3.243084106688115,81.48045805062144,57.18282773367663,17.94146539275608,55.90275414408344,7.0590692607806,5.199869756573891,3.1493562160984605,-2.459426921656087,-6.220277892371299,1.0963668481285977,4.4564838990353515,5.035467906022666,5.698697900553311,4.079873020386424,2.1033190517106077,56.788666742953254,45.923225610292874,0.3932282570477414,-2.5446497458208435,6.916499542197172,7.421748980475383,14.817333776340593,5.259232648801543,4.996376415733782,-7.3457250823030025,62.45307352177897,16.88142068589005,39.69852455881594,26.605728002316297,-3.491521390605137,7.35457063058177,-5.459926609669073,-11.562226247981261,15.369725215658637,9.268453384984994,-0.8252144466959344,21.71859614444685,8.682320610189418,13.560141219661459,1.7577967157623176,25.74759038378181,-6.092401547839181,8.546931045446286,3.298640410297725,6.4532145740904525,5.775082023577718,7.7488537402527635,0.461636337399978],[7.523169597163402,-12.344808210978194,10.89893865527318,-1.6186732627649736,-3.4968126403724837,-0.08167202077660453,68.93980725771165,48.38707837736003,19.0804575052642,51.439572799349584,6.876301676884305,4.905395992888573,0.6589408295207421,-4.4748791802017776,-7.60140941092513,-0.992236674625954,2.0488803740711794,0.6471067761663576,2.190596474978267,4.2298557359108155,-0.6160389438579635,53.550379445630504,42.226397307139116,-3.5722005571152704,-5.830564221508943,3.3043444447876396,6.895961263056563,14.005948381349027,4.333530476798892,0.3312958461489079,-9.86996789979502,56.913489158117386,17.16118202208624,37.22608406018945,26.818852353292932,-5.242683069996104,6.82169293133927,-6.962148529953119,-12.485857597871865,16.98761260816518,10.477800684697458,-3.104948901194817,23.996668702720157,11.544140545611388,16.95872995289916,0.0111707570677728,26.35256440008738,-8.52350953999186,8.309182793222593,-1.234252402335651,4.840681490701272,2.3546757291196285,8.053810924648655,-0.7768246709139986],[-5.004015019021974,3.6004766842075515,-6.2521034818917816,-2.148685710654225,-3.613423409420098,-5.887861191289484,-14.908828526348527,-31.37100069053282,-9.32900558084935,-16.7517742310472,-4.8024203124567535,-5.718665210471018,-6.124230971099278,-0.5731420266269768,0.6337710853031209,-4.403081078029426,-4.297284444884671,-4.744268844863199,-3.2259963541213454,-5.485303778374615,-4.139066336598849,-17.238616795917043,-11.179045292300435,-4.442661035094836,-2.1708071699332656,-5.123224221923214,-4.597477762448444,-5.460716333457051,-3.4478498576581216,-7.135484128422663,-0.9530499153607349,-37.681875105352105,-6.840318006491594,-14.046939467502357,-8.826828740540007,-0.5039953389682295,-3.7930642221852335,1.3101015925430304,3.9787003528490192,-6.198690792199815,-5.306664391437989,-3.5087552513896014,-8.632887343966294,-4.964294121894324,-8.587552339090529,-5.718550962361053,-9.841857976416984,-1.8952922256704872,-4.219612157847174,-5.475402989293577,-2.7780314710774605,-5.97048151093125,-2.5436256598667937,-4.5534514161644974],[-3.606819933228528,3.863513771693275,-3.038010653575424,0.13626529263610365,2.3027398577173215,1.1777206632433723,-22.0099566895351,-17.369404523566484,-7.785380114792165,-26.07524258842748,-1.4520759851692022,-1.205341432498629,0.15206991157775293,0.17865866665734104,3.3514098954151414,2.524215171975081,1.1157877086292916,0.7544890283375254,-0.6347901396695431,-0.4834122085975864,1.4029228719478644,-24.534148863481512,-21.187566250537138,1.7975342225982993,1.8116084731973705,-0.7475396052974227,-2.7373628746630745,-5.498991279633516,-2.4165282934560453,1.2305999090058835,2.654485251583397,-17.63620184120677,-7.361517571908388,-16.207413767196034,-10.72034519129694,1.7684570878062904,-2.6030344536052796,2.1708060417070847,6.225671507402997,-7.430016467244916,-4.33276563589271,2.1872883852272516,-9.624371136368316,-4.813803725051262,-6.708730389072008,-0.22701174436256125,-9.7104886294598,3.20827728885126,-3.9643634082049557,1.3540065723986456,-1.324146542955033,0.5444862417268743,-3.514350008048717,2.2644314467645166],[-2.765475220254514,5.499643078353609,-3.901508857257153,1.758795067878099,1.1641873663101792,1.2415501335992747,-22.950481085685908,-25.227961340867378,-9.088109719419379,-19.978790832474488,-2.2602219461323334,-1.3081469185975299,-0.2319390811973947,1.6113962007486204,2.3354000731806197,3.0092430800988184,1.1403403431773609,2.473856280843352,-1.3472670870017744,-0.49343070821520857,1.3195863346534504,-25.682178678314536,-21.680558174434655,1.2349447108359204,0.708848390570077,-1.0749973284297627,-3.465290969822157,-5.420806726017101,-0.386361655234493,1.0655949183434814,0.8981844208125307,-15.683012570009398,-7.753528338064777,-17.231536107081038,-9.67352237306519,1.6188450633417228,-5.076452540394726,1.0941145774511065,3.2916186608281204,-7.198775406826363,-4.259958427286191,2.463472146485489,-10.921485537065758,-5.22416852181655,-7.566505633883982,0.9564257529189325,-10.83879444093044,1.44778845144442,-4.932635308367131,1.9523104802433275,-3.52701481727453,0.053726181860282454,-3.5228987730475603,1.7443918094799595],[-2.590432371937478,5.049348688123424,-3.9639115884201583,0.7332061650165879,0.10827932337892834,0.9186775513593655,-34.16353193209594,-20.509293660052485,-7.873993322635523,-19.36233947304124,-4.174101726364344,-1.605480802251424,-0.03436892465251859,2.1931746826399348,2.039313887635195,-0.5638102024098907,-0.9349119873324443,0.9752409679714338,-1.243600616032529,-1.2116672688895171,1.4226656510924012,-19.101808672448126,-13.209622480875975,0.6790483731516661,1.218506975381692,-0.17671078845382487,-2.8681980587535616,-4.721949479674363,-0.9856172558344022,0.31509767782466536,3.1779858765892377,-23.548374086529215,-6.137906492082285,-15.228809380062534,-11.410665801646104,2.4764786354143262,-4.499830945231844,1.2576396094756592,4.0901120914389235,-7.608014385065117,-3.9054029135890933,1.588011710608679,-9.58393699120245,-2.633842082344849,-6.890631885473579,-0.44808729996222857,-10.089912552144524,5.1117983583398505,-3.216742845294129,0.33624292498375025,-3.0486243255626264,-0.137986695180711,-2.6394814836886344,1.5853280425378846],[-1.6485158008727228,3.809182539389878,-3.485756884591699,1.7485453206940986,-0.06156990679566283,-0.13743976170092034,-30.586869284429667,-16.74259576760366,-8.45806917174845,-20.16733355126654,-4.009884437998596,-1.038451381666068,0.8680682484026774,1.6649043738190918,1.4953824192213867,1.5718960153831294,0.3339705381447825,0.7049065498563816,-1.398285688398235,-0.5232432217999081,0.6736535931131394,-21.88588824612381,-20.393493859394937,1.4728583472815309,0.40073127275949877,-0.13085964789451193,-1.7805670463352123,-6.344544243771671,-2.8276324458073807,0.4630418670913362,3.071690791277405,-26.5045256866607,-6.893976964645473,-15.66601862950973,-11.854140009760266,2.041744670490272,-3.2827659772789053,2.8408480509675855,4.19231519407418,-6.56036516573924,-4.640787519765957,0.9536959704286786,-10.262900812575479,-3.61333546074209,-7.883116384304662,0.020315473991733626,-10.99429262470481,3.144845380756519,-4.442672036233947,0.8620734780656758,-1.0635875467618685,0.5714859508762278,-2.362542525136076,1.98082531655518],[-3.8649121331562566,2.921437905635061,0.4575938438523038,-3.097262003348664,-3.467152429473003,-5.181116543730709,0.1407091058802192,-4.557488629335742,2.482121962132401,2.6308097620538193,0.09074881366053814,-2.565155681506382,-3.545013319588248,-1.9709381749654415,-0.18640792557065436,-4.185500965459828,-5.490162978382658,-5.0933640249142735,-2.816932264280599,-5.781264719065883,-3.2001483125270513,1.908590197734355,-6.382651749586572,-3.416734343664596,-2.3424573122486154,-5.367769093215061,-1.8485121589838813,4.442070751803438,-0.5155138712093102,-5.353220301020057,0.01105001084429758,-3.6384565158430013,4.567823868527336,2.965746374144598,0.2390328537219409,-2.3492974455866826,-0.8395307471898438,-0.3683431309834516,2.1088008830082647,0.7217662979019202,1.6408978119592441,-2.9841746019456754,3.5202622727115065,1.4481184656850237,2.0895292481807144,-3.103250170577563,4.278982832186718,0.5561044246884621,-1.6120407225035323,-4.538169880661403,-0.514448819360631,-5.204107278341708,-5.471612440935593,-2.2302348749920076],[-3.158368680086395,1.3016946856681029,-0.2549777734047021,-2.006221490419702,-4.5849561744434855,-4.989811318891499,-4.16732245879057,-17.4941787795096,-0.7722368844256271,3.9934160429585734,-2.2436262435713834,-3.2694194031671397,-5.150027703614346,-0.8202553050847948,-0.13868434730186738,-4.365162854396434,-3.914157719068477,-4.799101322217813,-4.30891934041473,-5.155592300114887,-2.37061148226345,3.4983901890095126,-3.7870060844272886,-3.7126436616051506,-2.8694900318876453,-3.174203829377063,-3.5486834214075604,1.5846906401473508,-2.6371476517156207,-6.306994386467661,-1.3105126809418395,-12.288279636037634,2.415519776658227,6.172074317456827,6.36141416557359,-0.8991843207453075,-1.5760914778420363,-1.6966475927181197,1.3835143996030326,3.861362601057388,-1.0171986500266665,-3.6637089720664617,3.0182175989810562,0.8956308171932188,0.4820181168805985,-5.589586364439965,2.7252269321184457,-1.9268595436949179,-0.781046445853497,-4.763793515055047,-1.4753287617216944,-5.248136635084693,-3.1453747025507286,-2.2910374758844596],[-3.810156637826678,0.7691642649953089,-1.739217943482168,-4.502838879149696,-8.26802743120215,-7.76285237894681,1.5328864071649755,-3.8769206098572546,-0.06269797693983363,3.0267882191722766,-4.777926106501123,-5.33303422316009,-8.14939165880663,-4.212536497240815,-0.7984336277105343,-5.783833422711848,-7.783150964855218,-9.182095476907945,-5.0152601542201545,-6.8120317627571385,-5.186098432288519,2.19542975320161,-11.851862822073581,-7.7195322724409605,-5.823116985478212,-5.50627090484528,-3.642946560422803,1.2556123360094287,-3.9413430593967065,-11.29693366590067,-4.56821338295589,-10.170584215671715,3.0391027484043116,7.532040422051484,7.119450909835552,-2.4379276785268607,-3.938808368493386,-1.4458175146852859,0.7906331921449259,4.067990260347783,-0.37053252211152576,-7.480871922248726,3.8924056617630063,0.6360002262318046,0.8685088538049266,-9.047423811070848,3.5033983168881946,-4.847639698259855,-1.6285957631906667,-8.571645042119957,-2.1580955639326125,-8.436593590639621,-4.6802703282826945,-7.065154676552102],[0.8353005118598399,-4.599581667080068,0.2616370574870107,0.6756479742884048,0.5955345737717013,2.107382696489918,-4.298880124754914,-12.149656150536723,-5.343231421093063,2.7600707436605587,1.3219950713817208,-0.2239719575918663,1.5359895059492295,-0.8081054953376166,-1.2787490385365496,2.670649658002859,0.9197994974625318,2.16129485766132,1.6747535298976886,2.788447881756687,0.6726524987412266,4.362573111372607,15.08006177907637,0.36096600614268715,0.4215866795350709,1.582204386811845,0.22222832124685066,-0.4047002476855993,3.5917581524327025,0.9761305805197875,-2.4125026747856917,3.4273664078574217,-2.6205246418149533,0.6341126993993538,-2.811665036111559,-0.13610487423607637,-0.2619377455321142,-3.1265594029103068,-4.565851205433007,-1.4714307594943796,-2.096549082193424,0.36127683226035096,-3.440863198255004,-2.8297952429157878,-2.6257299156961222,1.5820299528688972,-2.2375450431479575,-0.663153646712769,-0.543598936295099,1.577653706205358,-0.1801715538191764,1.4546914477972606,1.7670676885220011,1.1012362105799118],[-1.0903521342084803,1.3028831965145253,-2.653402923168398,0.7875962678506108,1.1555517059851501,2.1929917284164917,6.244534124532331,6.704980721422864,-0.018490941713606993,2.3802326075497655,-0.051551304119383065,1.026404466774572,1.7500188851760774,-0.0793177164174972,0.5805117510457584,-0.09478330926753366,1.6660845066345333,1.9168985906808806,-1.0128788243514355,0.8636113837476795,-0.01975554586595284,0.35908580128488016,-11.930885369828815,1.0046431619230318,1.082541374987493,0.5275077730425314,-0.1612113558012746,0.09871566696346108,-2.102971235180514,1.2437615005677085,1.1910535456958395,-22.99542554340807,-0.01953757383228625,-1.1491704913174934,-2.220730569809616,-0.2173573556444886,0.12888694200761613,0.9772135425759739,0.8198066795051052,-2.2000775338599303,-0.7486937977465852,2.004460148114674,-0.6618460157659776,0.24497590630245367,0.25899714056040885,1.1456791068020822,-0.04683989615710875,0.5890233980504292,0.04543471385274491,1.5140105939473325,-0.9854948492896256,1.569391575497917,0.7692285616689906,0.07315375244986907],[-0.20564003961642663,3.955452409575071,1.394366139550092,-0.9113207609702824,1.4238076262832071,0.7418614471002088,-3.2116079387099177,-11.746789252600243,2.3231998519641417,-3.8782732604010457,2.438060320382269,0.7064348772715828,1.6115269274373223,0.2891706055510838,1.0577261416025707,1.0172516184447804,-0.8054915903644895,0.8189860057949873,-2.033337739842826,0.9379243507300937,-0.6857969500133914,-5.651498191820274,-13.37710179789167,1.3581488488378834,0.9963956694567907,-0.12678544819855467,2.023780980488479,2.889580979071634,-0.8694268151851029,0.48955334016724944,3.351355771755777,-9.167665995042094,2.864578710650496,2.6839130755869567,5.901796487658971,-0.27428262514885626,2.462649615333941,2.4937039028215873,3.7418542187325334,3.364568686250344,2.083929623308603,1.339221196351887,6.512816715023591,0.8326222571051938,2.598351749015107,1.7038556874334037,4.32481402396436,2.336107735095106,0.12172662257484812,0.7106230343481809,-0.7691969299459818,1.288252106940144,0.1570993205542471,0.8255790150080401],[-1.4874375943000087,-0.4432662712995961,-1.0815238754331427,-1.0497901828500424,1.130751812110345,1.538001390276451,-4.0703982557649,19.449617929503496,-0.5391030382752396,1.0527338781276614,-0.6896542022253354,-0.6237664960946521,0.724322686321033,-0.13999354055025465,1.0073133036905544,0.9818927510257597,0.4247066444427969,0.22516618183303114,-0.4837257315133508,0.11767501101531234,-0.5312097112957416,-1.7578499393958118,-15.125496684207405,0.9792111023143608,0.3107367435903164,-1.3872625823715148,-0.34599900056085753,-0.5145518049614107,-2.7560934372370007,1.862445261154217,1.151540953059268,-27.163009656544588,0.31531441660934856,0.3707392981573132,-0.04912183329701828,0.7766139130717589,0.8848308559499154,0.6139763904465145,0.39648176683508746,0.9908592954976011,-0.4903449778366821,-0.14648075970696223,-2.2918408643812715,-1.857178524327565,-0.971317948800435,1.1235463353706878,-0.7835854638670418,-0.24133436065097894,-2.6415432158572156,1.5132317969309534,-1.0512730559677501,0.44350473670707985,-2.657037211474312,-0.4797772741681901],[0.692840879058733,-0.21821841770640776,-0.5162515238555785,0.04673851591517336,0.37093447011541775,-0.08202013496226986,-1.6415157757734165,-4.42983983530057,-0.09199917698195656,2.182176935709246,0.3191148893335969,-1.4681419324827016,0.31196900409508116,-0.7876914471439483,-1.1347561605169019,-0.7532224650603345,-1.2531889884880316,0.6366567949985389,0.0214978627198674,-0.5453798928844197,-0.9630114952139147,4.302969313336894,0.03561416771802469,0.36966393702520534,-0.06598709606406113,-1.40695763668746,-1.3629884312370586,0.15918843394818752,-1.2133394840743,-0.013305604345883019,-0.24327683459962468,-21.63732662495168,1.7927013321984477,1.741746071864514,1.6568692402498566,1.492165931416417,-1.4845124961239038,-0.4423268511799722,0.5334397259627047,3.1300222104050994,-1.8546496916780257,0.5766973340899495,2.9494619279150323,-0.049177185471137676,0.273961942862868,-0.778430326485785,2.519237684829013,-0.173297668311255,1.8127758285646127,0.5221208553922579,0.3889165847355721,-0.670320115204383,-0.08275180219646655,-0.7900184986757304],[-6.213056675857844,-1.26732782694787,-2.1134838312187862,-3.988944552114997,-8.389158676336608,-8.398890389611587,19.930481917474825,-9.26518888190716,-2.473283004827094,14.097899707425457,-3.4953553075102253,-7.21717155083625,-7.365601253410859,-3.5136487010200494,-1.6413663931253704,-7.051213493480337,-6.66535620410461,-8.378252361572383,-4.5501594441519835,-8.475482632273167,-5.230522950614203,13.481583976018712,-5.510996354761914,-8.059531986706302,-7.023176381518241,-6.420636560813184,-4.2335319313174935,0.8445202075789242,-1.829471288399697,-10.084897787517386,-4.755058600774802,-15.79483066228523,1.8943455903927042,4.235565109433408,1.7337106777249274,-3.232963728975771,-2.3387254652272635,-1.8723769184395647,-0.9149460723362277,1.881252871237184,-1.6671267633351792,-7.0047632249065535,1.846630161594492,1.2825448554077619,-1.38022722492488,-6.407494782074607,3.929858488065438,-5.936562574482811,-2.377247629345836,-8.634485922890127,-2.3834071132448487,-8.060167391704937,-5.582905553084646,-6.358627544370382],[3.1029106620053057,1.5893554872746305,1.2977590759668474,1.1850017691962778,5.363965125366785,4.636812480936194,-3.198518099277441,-22.44105574104012,1.3192366331899283,-2.9504107459047937,1.5196056139225338,2.4094955891687437,4.09343045238742,1.5164640616865084,0.31089974247534136,4.823495335835097,3.347164759391306,3.4466384939983756,1.3651185719975114,2.1272794883667916,1.28024338710663,-2.336184713517286,-1.9741859902777295,5.0171770167614715,4.092703830748782,4.031878607049478,2.4613051719645176,3.2261402830986055,0.33839006249708964,5.409921912759882,3.2448241642664293,-6.348605306060991,0.8200911566804628,0.28809188926091556,-1.244540729713206,0.6865916438780968,1.946113731588933,1.8139403933139389,1.4433315230289379,0.9948263978672431,0.2940812367942523,3.845406370941523,0.8133519974013784,1.172820358293682,0.8988241467209708,5.31116461150579,2.7651902257540706,3.6713711252029397,2.5018443274483713,5.7156680457169795,1.3895006846708313,3.8433527159013576,-0.5104633472719997,4.197446780733762],[0.22259106282349286,-0.7160142350587336,0.9364829728634666,-3.5444107954547968,-4.549405520892989,-3.6700810866526608,-1.1062216888696965,-31.528762892120913,-1.5507944012920765,3.28638174598629,-2.6203452370448557,-3.002997232080439,-3.321410944314684,-2.4772492934980597,-2.376397308128676,-3.4117326838050084,-3.3292429459544204,-3.177326562909047,-3.048692180353794,-3.114254890831121,-3.1591601135190492,3.2538521525282333,4.729054106261369,-3.510341273088734,-3.1804313925182712,-1.8904123856185029,-2.0244629072612645,0.4307534172639191,-1.8028031510170186,-5.111788577153592,-2.787880314797089,9.69438492467809,0.8277736429656751,2.0041025827288257,0.32173265134279844,-1.595404399419766,-1.4968261705774721,-2.109830676471647,-0.05272132464493083,0.4274372179089959,-1.758716338283136,-4.170327097469311,0.5392819371808165,-0.05112888109239036,-1.2649704969213715,-2.817339137773691,0.6293084938583617,-3.0221387162474915,-1.1145794922316516,-4.459921065801292,-0.8092703026767525,-3.3902356387914248,-1.5884690983795196,-1.908184111242854]]}},{"name":"Layer 2","number":2,"activation":"linear","derivative":"linearP","parameters":{"bias":[2.333439631590848],"weights":[[-0.9941603351121274],[0.058594122185046234],[-0.008882215127544566],[-1.6048291816811164],[-2.6988227811994037],[-2.893332816700341],[7.7412281411047825],[0.11355191839572538],[0.11595660658009899],[3.2156193509367297],[-0.8712935202675934],[-1.5035145991620067],[-2.57196720692301],[-1.089230270250518],[-0.2275106815934049],[-2.3351697829972595],[-2.39689369628074],[-3.026246456998196],[-1.377203545977224],[-2.130611003420743],[-1.6453855610911035],[2.601534246007772],[0.09829553181268014],[-2.592607596123946],[-1.8817672731712083],[-1.5907881644858746],[-1.139524383832585],[0.5149215843191325],[-0.6938818332431768],[-3.5118926395737984],[-1.1159997320044908],[0.017469513402578647],[0.8257425233616402],[1.6302652091250203],[0.704558208575041],[-0.9148086077354308],[-0.6931919818438582],[-0.8502262539349553],[-0.08055064793232516],[0.37889843441282334],[-0.1960197531653323],[-2.136879985305801],[0.96924312794113],[-0.01216156625507301],[0.12598438346498939],[-2.523097098635686],[1.2224418872420495],[-1.1750506957580695],[-0.01946566464570163],[-3.0133095443856663],[-0.5893583441821219],[-2.7701729200158844],[-0.8991736068498154],[-1.994970157514211]]}}]
